-0.0437470747586585,-0.466958379084041,-0.441673143187622,-0.335821645370166,0.374781418908847,-0.249587092582482,0.457569656550326,0.0713108095787041,-0.43742707645588,-0.0884076942661431,0.362148090260916,0.407791713536162,0.25468351638222,0.0723947220602677,0.18485478079518,-0.160293821258865,0.171208777063975,0.0237183678801938,0.428956107235709,-0.160684054037268,0.243984659755868,-0.478407375800701,-0.0885789216465409,-0.112217449933456,0.259764402647868,0.373461286571608,0.329514172408071,0.129927893974514,-0.342995438408989,0.0905409306083348,0.154850530753645,0.102904066896664,0.438385993214391,-0.0538581380827134,0.346610977020862,-0.389370197768056,-0.225708884377351,-0.250713961263481,-0.0536424765758507,-0.429525478149398,-0.381454548132323,0.175635958061333,0.235626616755896,0.100192243820833,0.101939402580684,0.164456488792011,-0.293705170697592,0.381277772969296,0.390151249915228,-0.0911378650341962,-0.130541649013268,0.166438921340635,0.376791436361461,-0.366089006294953,0.000639730906474949,-0.445110604276813,-0.0201965926396892,0.400319099524684,0.259870205034732,-0.286560397862546,-0.00244334698200028,-0.329118890238717,0.00442938081418708,-0.143544438774562,0.0298822493469547,0.356462239358588,-0.163271454645661,-0.0494877376567812,0.258864026240654,-0.0900589295519022,-0.308703138986785,0.140079226018205,0.124122683628946,0.377823768453815,0.122464737631217,-0.0897409515103518,0.349348513440247,-0.201898758103988,-0.330291490569471,0.125256162463018,-0.02839246558971,-0.127092582779367,
